<?xml version="1.0"?>
<opencv_storage>
<cascade>
  <stageType>BOOST</stageType>
  <featureType>HAAR</featureType>
  <height>63</height>
  <width>38</width>
  <stageParams>
    <boostType>GAB</boostType>
    <minHitRate>9.9500000476837158e-01</minHitRate>
    <maxFalseAlarm>5.0000000000000000e-01</maxFalseAlarm>
    <weightTrimRate>9.4999998807907104e-01</weightTrimRate>
    <maxDepth>1</maxDepth>
    <maxWeakCount>100</maxWeakCount></stageParams>
  <featureParams>
    <maxCatCount>0</maxCatCount>
    <featSize>1</featSize>
    <mode>BASIC</mode></featureParams>
  <stageNum>3</stageNum>
  <stages>
    <!-- stage 0 -->
    <_>
      <maxWeakCount>2</maxWeakCount>
      <stageThreshold>-5.4357316344976425e-02</stageThreshold>
      <weakClassifiers>
        <_>
          <internalNodes>
            0 -1 4 6.2119094654917717e-03</internalNodes>
          <leafValues>
            -9.1967868804931641e-01 9.9233716726303101e-01</leafValues></_>
        <_>
          <internalNodes>
            0 -1 3 -6.2498122453689575e-02</internalNodes>
          <leafValues>
            8.6532139778137207e-01 -1.</leafValues></_></weakClassifiers></_>
    <!-- stage 1 -->
    <_>
      <maxWeakCount>2</maxWeakCount>
      <stageThreshold>-2.6196438819169998e-02</stageThreshold>
      <weakClassifiers>
        <_>
          <internalNodes>
            0 -1 2 1.7441371455788612e-03</internalNodes>
          <leafValues>
            1. -9.5918369293212891e-01</leafValues></_>
        <_>
          <internalNodes>
            0 -1 1 -8.8978037238121033e-03</internalNodes>
          <leafValues>
            9.3298721313476563e-01 -1.</leafValues></_></weakClassifiers></_>
    <!-- stage 2 -->
    <_>
      <maxWeakCount>1</maxWeakCount>
      <stageThreshold>1.</stageThreshold>
      <weakClassifiers>
        <_>
          <internalNodes>
            0 -1 0 -1.0971889423672110e-04</internalNodes>
          <leafValues>
            -1. 1.</leafValues></_></weakClassifiers></_></stages>
  <features>
    <_>
      <rects>
        <_>
          0 0 1 2 -1.</_>
        <_>
          0 1 1 1 2.</_></rects>
      <tilted>0</tilted></_>
    <_>
      <rects>
        <_>
          0 3 16 58 -1.</_>
        <_>
          0 3 8 29 2.</_>
        <_>
          8 32 8 29 2.</_></rects>
      <tilted>0</tilted></_>
    <_>
      <rects>
        <_>
          8 44 6 14 -1.</_>
        <_>
          11 44 3 14 2.</_></rects>
      <tilted>0</tilted></_>
    <_>
      <rects>
        <_>
          11 5 23 40 -1.</_>
        <_>
          11 25 23 20 2.</_></rects>
      <tilted>0</tilted></_>
    <_>
      <rects>
        <_>
          26 47 12 5 -1.</_>
        <_>
          30 47 4 5 3.</_></rects>
      <tilted>0</tilted></_></features></cascade>
</opencv_storage>
